tree
version=v2
num_class=1
num_tree_per_iteration=1
label_index=0
max_feature_idx=12
objective=regression
feature_names=Column_0 Column_1 Column_2 Column_3 Column_4 Column_5 Column_6 Column_7 Column_8 Column_9 Column_10 Column_11 Column_12
feature_infos=[-0.41384108005335313:10.310309904046708] [-0.50281196793957461:3.8331547180467456] [-1.4270820366368517:2.3933606712555244] [-0.28784916685157097:3.4740416688982707] [-1.4570068332922173:2.628379936089535] [-3.4214638425845645:3.4159126153894199] [-2.3944859346357088:1.1151639907630828] [-1.2483575753583946:3.9638285276725083] [-0.9734003858779291:1.7041417926319822] [-1.3163875520411588:1.8432607714440477] [-2.5050590904148891:1.6524567558127079] [-4.1013974323313578:0.43632120107600958] [-1.5106352558563136:3.5662364855438864]
tree_sizes=862 862 861 865 869 872 872 874 872 871 876 877 882 876 883 873 872 882 877 880 883 886 880 889 882 888 891 893 891 893 887 896 894 897 895 892 900 887 892 895

Tree=0
num_leaves=10
num_cat=0
split_feature=12 12 5 5 12 12 0 0 0
split_gain=152.39 49.1018 20.3404 16.3484 7.56318 2.86829 2.31139 1.8291 1.52745
threshold=-0.972688581270862 0.26921174951039545 1.5483924642690094 0.62923325362821136 0.97106405150860209 -0.35909315557183125 0.92279608481314168 -0.40121927553603215 -0.33536674926483023
decision_type=2 2 2 2 2 2 2 2 2
left_child=2 3 -1 5 8 7 -6 -2 -3
right_child=1 4 -4 -5 6 -7 -8 -9 -10
leaf_value=0.10589339045158287 -0.0061823871537261604 -0.03861579465486633 0.23231238016475358 0.088531355015825403 -0.096277394468779406 -0.022099750791049901 -0.14046700949232663 0.030614457020766608 -0.073779797737905217
leaf_count=35 35 21 20 20 29 71 20 22 30
internal_value=0 -0.321251 1.51864 0.0445054 -0.862571 -0.0868709 -1.14314 0.0801991 -0.593005
internal_count=303 248 55 148 100 128 49 57 51
shrinkage=1


Tree=1
num_leaves=10
num_cat=0
split_feature=12 12 5 5 0 12 12 12 0
split_gain=123.436 39.7725 16.4757 13.6195 6.38509 1.63528 1.36913 1.25638 1.08176
threshold=-0.972688581270862 0.26921174951039545 1.5483924642690094 0.40813444199146892 0.43899319274204823 1.0242983578477873 -0.39621707972942105 1.3212897511085056 -0.40505728772046062
decision_type=2 2 2 2 2 2 2 2 2
left_child=2 3 -1 6 5 -3 8 -6 -2
right_child=1 4 -4 -5 7 -7 -8 -9 -10
leaf_value=0.09530405439436436 -0.011868788536638022 -0.044644880571808571 0.20908114165067673 0.064168487923840681 -0.090006056576967253 -0.079815056174993515 -0.019900021995095409 -0.12502696883110773 0.018918013985135727
leaf_count=35 25 39 20 30 20 20 72 21 21
internal_value=0 -0.289126 1.36678 0.0400548 -0.776314 -0.56567 -0.112902 -1.07944 0.0218606
internal_count=303 248 55 148 100 59 118 41 46
shrinkage=0.1


Tree=2
num_leaves=10
num_cat=0
split_feature=5 12 12 5 0 12 5 12 0
split_gain=102.11 35.0625 11.6771 10.7294 5.42873 2.7803 1.37616 1.32458 1.24183
threshold=0.91012608350633784 0.26921174951039545 -1.0126143110252508 1.5483924642690094 0.43899319274204823 -0.35909315557183125 0.31149062181062898 1.0242983578477873 -0.40505728772046062
decision_type=2 2 2 2 2 2 2 2 2
left_child=1 2 -1 -2 7 6 8 -3 -4
right_child=3 4 5 -5 -6 -7 -8 -9 -10
leaf_value=0.077119178625725912 0.092005289718508729 -0.0401803943161399 -0.015926934373767479 0.18868819800290196 -0.098631411679089065 -0.018230675062578586 0.031322041153907777 -0.071833550930023193 0.017305491500618785
leaf_count=20 24 39 23 22 40 72 21 20 22
internal_value=0 -0.235293 0.0570848 1.38245 -0.701915 -0.046409 0.101843 -0.509103 0.00320029
internal_count=303 257 158 46 99 138 66 59 45
shrinkage=0.1


Tree=3
num_leaves=10
num_cat=0
split_feature=5 12 12 12 7 12 0 5 0
split_gain=82.7088 28.4006 9.45844 8.72362 4.40057 2.25205 2.04712 1.11469 1.00588
threshold=0.91012608350633784 0.26921174951039545 -1.0126143110252508 -1.0924657705340288 -0.80332468959596459 -0.35909315557183125 0.92279608481314168 0.31149062181062898 -0.40505728772046062
decision_type=2 2 2 2 2 2 2 2 2
left_child=1 2 -1 -2 6 7 -3 8 -4
right_child=3 4 5 -5 -6 -7 -8 -9 -10
leaf_value=0.069407258629798893 0.16796857766483142 -0.066277459218646542 -0.014334240961192258 0.080872317986643849 -0.0396006284958937 -0.01640760832750756 -0.10565830956805836 0.028189836514537183 0.015574941919608551
leaf_count=20 23 33 23 23 44 72 22 21 22
internal_value=0 -0.211763 0.0513763 1.2442 -0.631724 -0.0417681 -0.820298 0.0916587 0.00288026
internal_count=303 257 158 46 99 138 55 66 45
shrinkage=0.1


Tree=4
num_leaves=10
num_cat=0
split_feature=5 4 5 5 0 10 5 2 5
split_gain=66.9942 14.3146 9.28768 7.66219 4.26709 3.20928 0.694137 0.570797 0.269271
threshold=0.91012608350633784 0.93454159446315055 0.31149062181062898 1.5483924642690094 0.43899319274204823 1.1880533900106889 -0.62991752585021865 -0.11807999311096787 -0.31287017331451267
decision_type=2 2 2 2 2 2 2 2 2
left_child=1 2 5 -2 -3 6 -1 8 -8
right_child=3 4 -4 -5 -6 -7 7 -9 -10
leaf_value=-0.022103778647724542 0.072903020928303405 -0.0333136331888714 0.03698293440043926 0.15460609035058456 -0.086768525280058392 -0.051503631229633876 -0.020555391623233651 0.0044711971015203742 -0.0069128672037130374
leaf_count=40 24 28 40 22 32 23 23 32 39
internal_value=0 -0.190587 -0.0603409 1.11978 -0.618229 -0.169938 -0.110705 -0.0637551 -0.119738
internal_count=303 257 197 46 60 157 134 94 62
shrinkage=0.1


Tree=5
num_leaves=10
num_cat=0
split_feature=5 12 5 12 4 12 12 0 5
split_gain=63.3882 21.1086 7.37253 6.10212 4.16829 1.56196 1.04773 0.599733 0.521588
threshold=0.91012608350633784 0.26921174951039545 1.5483924642690094 -0.95587774769006661 0.21161307148613193 1.0242983578477873 -0.48027124763339785 -0.40604511780373292 -0.3434624617170805
decision_type=2 2 2 2 2 2 2 2 2
left_child=1 3 -2 -1 -3 -6 7 -5 -8
right_child=2 4 -4 6 5 -7 8 -9 -10
leaf_value=0.052188632423834258 0.073575598569143391 -0.020678541282641478 0.15736975584711349 -0.0017970561127488812 -0.050437591310058316 -0.079906659029625571 -0.01704297451734809 0.020558653962022316 -0.0016294687986373902
leaf_count=24 21 29 21 24 35 37 42 24 46
internal_value=0 -0.168946 1.15473 0.0570028 -0.526885 -0.655814 -0.0250355 0.093808 -0.0898591
internal_count=303 261 42 160 101 72 136 48 88
shrinkage=0.1


Tree=6
num_leaves=10
num_cat=0
split_feature=5 12 5 12 7 0 5 8 0
split_gain=51.3445 17.098 5.97175 4.94272 3.73843 1.07668 0.945777 0.839022 0.771245
threshold=0.91012608350633784 0.26921174951039545 1.5483924642690094 -0.95587774769006661 -0.80332468959596459 -0.33536674926483023 0.40813444199146892 -0.33311856058208067 1.0172938753904857
decision_type=2 2 2 2 2 2 2 2 2
left_child=1 3 -2 -1 8 -6 7 -5 -3
right_child=2 4 -4 6 5 -7 -8 -9 -10
leaf_value=0.046969768824055791 0.066218037761393053 -0.055459345574490726 0.14163278071653276 -0.010811713144053207 -0.011336656400690908 -0.041614369908347729 0.016729858763177285 0.0091184462898776728 -0.079781763187863619
leaf_count=24 21 32 21 86 23 24 22 28 22
internal_value=0 -0.152052 1.03925 0.0513025 -0.474197 -0.267976 -0.0225319 -0.0591659 -0.653685
internal_count=303 261 42 160 101 47 136 114 54
shrinkage=0.1


Tree=7
num_leaves=10
num_cat=0
split_feature=12 12 7 0 10 12 7 7 7
split_gain=37.7653 12.2756 7.24202 3.14331 2.6428 1.00254 1.40621 0.635355 0.592085
threshold=-0.92015472633087636 0.34836275761997365 1.0000000180025095e-35 -0.33536674926483023 -1.2003067769711218 -0.35909315557183125 0.32934194733972627 0.18866804511459248 -0.81244858655632102
decision_type=2 2 2 2 2 2 2 2 2
left_child=2 4 -1 -3 -2 6 -6 -7 -5
right_child=1 3 -4 8 5 7 -8 -9 -10
leaf_value=0.12002762197093531 0.032692922813736876 -0.015435455338313029 0.046394527845961209 -0.063402796103510753 0.0218365199980326 -0.0062299538385123011 -0.00822993011712762 -0.027319007916375995 -0.043232918581502008
leaf_count=22 23 26 34 43 28 50 35 20 22
internal_value=0 -0.156329 0.753218 -0.448216 0.0139381 -0.0401882 0.0513294 -0.122554 -0.565761
internal_count=303 247 56 91 156 133 63 70 65
shrinkage=0.1


Tree=8
num_leaves=10
num_cat=0
split_feature=5 12 5 12 7 12 7 6 4
split_gain=35.7611 10.9433 4.44183 3.134 2.56626 0.770554 0.846358 0.626416 0.578998
threshold=0.91012608350633784 0.26921174951039545 1.5483924642690094 -1.0126143110252508 -0.80332468959596459 -0.48027124763339785 0.076977327259630565 0.84407877510406182 0.98077539535121572
decision_type=2 2 2 2 2 2 2 2 2
left_child=1 3 -2 -1 8 6 -5 -6 -3
right_child=2 4 -4 5 7 -7 -8 -9 -10
leaf_value=0.040575754269957548 0.054179608028027272 -0.039864174909889701 0.11922051012516022 0.024045774592086674 -0.011032788768912165 -0.0074457272146405146 -0.0021776038527605126 -0.03425395492286909 -0.061306939925998449
leaf_count=20 21 20 21 20 26 88 32 21 34
internal_value=0 -0.127218 0.867001 0.0354702 -0.384941 -0.017428 0.0790831 -0.214082 -0.533652
internal_count=303 261 42 160 101 140 52 47 54
shrinkage=0.1


Tree=9
num_leaves=10
num_cat=0
split_feature=5 12 5 7 0 5 6 12 7
split_gain=28.9665 8.86867 3.59789 2.60745 2.34325 1.71378 0.764086 0.470093 0.45963
threshold=0.91012608350633784 0.22438285996160787 1.5483924642690094 -0.7125359902320012 0.23201958623413876 0.31149062181062898 0.86034388804360318 1.076131761388573 0.076977327259630565
decision_type=2 2 2 2 2 2 2 2 2
left_child=1 3 -2 -1 6 8 -3 -6 -5
right_child=2 4 -4 5 7 -7 -8 -9 -10
leaf_value=0.037596703059971336 0.048761646733397529 -0.0088735927796612189 0.10729846038988658 -3.9275976596400149e-05 -0.038813513817942957 0.016863654448503726 -0.031842776866895815 -0.058505823987501641 -0.014074381247961096
leaf_count=20 21 30 21 40 22 38 28 27 56
internal_value=0 -0.114496 0.780301 0.0391569 -0.335641 -0.0111132 -0.199622 -0.496644 -0.0822642
internal_count=303 261 42 154 107 134 58 49 96
shrinkage=0.1


Tree=10
num_leaves=10
num_cat=0
split_feature=5 10 5 0 9 11 0 5 7
split_gain=23.3236 3.58121 2.77288 1.65898 1.50707 1.45228 1.4087 0.529983 0.562368
threshold=0.71475260529902707 0.61307779425580888 1.3996026979474283 1.2244368414184679 -0.032026687723698911 -0.38362160307440635 1.0000000180025095e-35 0.28924168479057938 0.93042901877474804
decision_type=2 2 2 2 2 2 2 2 2
left_child=1 4 -2 5 7 -3 -7 8 -1
right_child=2 3 -4 -5 -6 6 -8 -9 -10
leaf_value=0.0046857020141170269 0.039798196091463692 -0.04312969281378648 0.085076520982242776 -0.052312104226577852 -0.022228888760631282 -0.027869971129237805 0.00011601743421384267 0.016299344376117613 -0.014650828058698349
leaf_count=53 38 23 21 21 30 37 35 24 21
internal_value=0 -0.141503 0.559142 -0.268764 -0.0261725 -0.212538 -0.142657 0.0338632 -0.00801692
internal_count=303 244 59 116 128 95 72 98 74
shrinkage=0.1


Tree=11
num_leaves=10
num_cat=0
split_feature=5 4 7 4 5 0 6 7 2
split_gain=18.9086 4.60883 1.58282 1.58193 1.49216 1.27373 1.24357 0.561125 0.396918
threshold=0.91012608350633784 0.93454159446315055 -0.046444115258647022 1.245568982255588 0.31149062181062898 1.0000000180025095e-35 0.26937811790693728 0.43837844062440284 -0.84458332749909582
decision_type=2 2 2 2 2 2 2 2 2
left_child=1 4 -2 -3 5 6 7 -1 -9
right_child=2 3 -4 -5 -6 -7 -8 8 -10
leaf_value=0.0058026097828169938 0.077964650975032301 -0.053009143070532727 0.040830105046431225 -0.021324536588508636 0.014582229930123217 0.015970813110470772 -0.022976463379443819 -0.019953845936992287 -0.00069166457280516629
leaf_count=37 22 26 24 40 38 20 53 23 20
internal_value=0 -0.110253 0.585901 -0.338064 -0.0315333 -0.0755824 -0.110964 -0.0322594 -0.109947
internal_count=303 257 46 66 191 153 133 80 43
shrinkage=0.1


Tree=12
num_leaves=10
num_cat=0
split_feature=12 10 5 12 9 5 4 6 10
split_gain=17.7361 6.39571 4.30216 2.13332 0.897132 0.663769 0.584591 0.501254 0.362774
threshold=-1.1015716387236265 0.61307779425580888 0.62923325362821136 0.90872387697981927 -0.64707273542501753 -0.60488747170266322 0.51003124085455243 0.28202876130435833 -0.1830422614047951
decision_type=2 2 2 2 2 2 2 2 2
left_child=-1 2 4 6 8 -6 7 -3 -2
right_child=1 3 -4 -5 5 -7 -8 -9 -10
leaf_value=0.075411061995795794 0.016830556774511934 -0.013146739572818792 0.03795034741415293 -0.044678525383082722 -0.024859158727644094 -0.0038125405699924331 -0.0071743604187902658 -0.034746172160587528 0.00011428089629909074
leaf_count=28 20 21 32 39 23 43 38 22 37
internal_value=0 -0.0813104 0.0528742 -0.254632 -0.0321025 -0.11147 -0.162114 -0.241976 0.0597964
internal_count=303 275 155 120 123 66 81 43 57
shrinkage=0.1


Tree=13
num_leaves=10
num_cat=0
split_feature=12 10 5 12 4 9 12 7 10
split_gain=14.3663 5.18052 3.48475 1.87377 1.21893 0.757204 0.466902 0.359693 0.636089
threshold=-1.1015716387236265 0.61307779425580888 0.62923325362821136 0.43521873112074977 0.51003124085455243 -0.032026687723698911 1.5118125316908528 1.0942562906888902 -0.1830422614047951
decision_type=2 2 2 2 2 2 2 2 2
left_child=-1 2 5 4 -3 7 -5 8 -2
right_child=1 3 -4 6 -6 -7 -8 -9 -10
leaf_value=0.067869955504180068 0.017868116491124967 -0.020948661175659963 0.034155312457005496 -0.028931722166233288 0.0093669528585104724 -0.016703709733362 -0.04742585487663746 -0.0096052226398817518 -0.001948935511830749
leaf_count=28 25 36 32 43 21 30 20 22 46
internal_value=0 -0.0731793 0.0475868 -0.229169 -0.0977975 -0.0288922 -0.348029 0.0156706 0.050289
internal_count=303 275 155 120 57 123 63 93 71
shrinkage=0.1


Tree=14
num_leaves=10
num_cat=0
split_feature=12 10 5 12 4 9 5 4 4
split_gain=11.6367 4.19622 2.82265 1.51776 0.987335 0.637928 0.490714 0.393587 0.282307
threshold=-1.1015716387236265 0.61307779425580888 0.62923325362821136 0.43521873112074977 0.51003124085455243 -0.64707273542501753 -0.60488747170266322 0.98077539535121572 -0.67523529100311652
decision_type=2 2 2 2 2 2 2 2 2
left_child=-1 2 5 4 -3 8 -7 -5 -2
right_child=1 3 -4 7 -6 6 -8 -9 -10
leaf_value=0.061082960080238995 -0.0012960052560834637 -0.018853795197274953 0.030739781392912849 -0.022195770175851608 0.0084302576613568131 -0.021082928501393483 -0.0029866947115637192 -0.038167701671934791 0.01283363476395607
leaf_count=28 31 36 32 27 21 23 43 36 26
internal_value=0 -0.0658614 0.0428281 -0.206252 -0.0880178 -0.026003 -0.0929296 -0.313226 0.0514909
internal_count=303 275 155 120 57 123 66 63 57
shrinkage=0.1


Tree=15
num_leaves=10
num_cat=0
split_feature=4 4 10 7 6 4 11 4 9
split_gain=5.66172 7.55406 3.82545 1.89946 1.56202 0.729589 0.545415 0.276504 0.261605
threshold=0.93454159446315055 0.58148347859065319 -0.1830422614047951 0.68716459722134571 -0.34327446948245016 1.4347072586158545 0.35880079222701372 -0.25492801020252442 -0.62295328257398552
decision_type=2 2 2 2 2 2 2 2 2
left_child=1 2 3 6 -4 -2 -1 -6 -5
right_child=5 -3 4 8 7 -7 -8 -9 -10
leaf_value=0.040509993739426139 -0.03570585927137962 0.063812214435477341 0.0024433197186921134 0.0091450496961403161 -0.010281197567071234 -0.013249525379227557 0.019172171600486922 -0.023915159093631507 -0.0061079134804789322
leaf_count=25 39 21 55 23 21 23 23 51 22
internal_value=0 0.0650843 0.0103853 0.164481 -0.102456 -0.273753 0.302856 -0.199386 0.0168805
internal_count=303 241 220 93 127 62 48 72 45
shrinkage=0.1


Tree=16
num_leaves=10
num_cat=0
split_feature=12 6 12 5 11 4 7 6 7
split_gain=7.47044 8.74535 1.76029 1.67233 0.43298 0.422268 0.424788 0.349623 0.162862
threshold=-0.48027124763339785 0.49889693383157513 0.50036071124633197 1.0874223003848578 -0.094021374592030818 -0.67523529100311652 1.291782735272194 1.0229950174390159 0.32934194733972627
decision_type=2 2 2 2 2 2 2 2 2
left_child=1 3 8 5 -4 6 -1 -6 -2
right_child=2 -3 4 -5 7 -7 -8 -9 -10
leaf_value=0.012493952320000973 -0.0012444355353993062 0.074766335802395709 -0.033045090516579563 0.02929316831438843 -0.011521369963884354 -0.013259810683402149 -0.0063370259843118816 -0.02709954060893506 -0.010580018036067486
leaf_count=25 74 23 29 23 34 22 23 25 25
internal_value=0 0.195539 -0.127493 0.0589919 -0.2304 -0.0178741 0.0347078 -0.181223 -0.0360191
internal_count=303 116 187 93 88 70 48 59 99
shrinkage=0.1


Tree=17
num_leaves=10
num_cat=0
split_feature=5 10 11 5 5 11 6 0 4
split_gain=5.1388 1.64159 1.42901 0.809459 0.530596 0.337086 0.223138 0.49251 0.493358
threshold=0.91012608350633784 -1.3329934529145555 -2.384792364055246 0.47418597376974153 -0.78287896786305999 0.39066711527416559 0.98142861770463263 -0.20658601128254669 -0.38522326725070799
decision_type=2 2 2 2 2 2 2 2 2
left_child=2 -2 -1 4 5 -4 7 8 -6
right_child=1 -3 3 -5 6 -7 -8 -9 -10
leaf_value=-0.030983106636752685 0.051553752096369865 0.014042682676309988 -0.0066325327720154412 0.012533480743015255 0.00072338362511220405 -0.023946681950727237 -0.012331226858836801 0.010711633256421639 -0.012827556921084497
leaf_count=21 20 28 22 27 69 23 23 26 44
internal_value=0 0.296723 -0.059943 -0.0375171 -0.0587587 -0.15482 -0.032075 -0.0169782 -0.0455309
internal_count=303 48 255 234 207 45 162 139 113
shrinkage=0.1


Tree=18
num_leaves=10
num_cat=0
split_feature=5 10 7 10 11 5 6 11 7
split_gain=4.16243 1.32969 1.26717 1.20218 0.8687 0.511983 0.511546 0.418324 0.266745
threshold=0.91012608350633784 -1.3329934529145555 -1.080477871287834 -0.1830422614047951 -0.044019280618581978 0.31149062181062898 0.41214966482068821 0.38837868992068986 0.82174800199502041
decision_type=2 2 2 2 2 2 2 2 2
left_child=2 -2 -1 5 -5 8 -6 -8 -4
right_child=1 -3 3 4 6 -7 7 -9 -10
leaf_value=0.018769018836319446 0.04639837693423033 0.012638414478195565 0.0029801232274621727 -0.026568970347152041 -0.0022958888486755316 0.014975318968451272 -0.005485775832158442 -0.02223136981417026 -0.011741643573623152
leaf_count=20 20 28 32 34 64 24 26 35 20
internal_value=0 0.267051 -0.0539487 -0.0745137 -0.123963 0.0289393 -0.0854132 -0.150939 -0.0268209
internal_count=303 48 255 235 159 76 125 61 52
shrinkage=0.1


Tree=19
num_leaves=10
num_cat=0
split_feature=12 12 9 2 12 4 4 12 12
split_gain=5.0748 2.34203 1.1779 2.16544 0.726962 0.454406 0.56628 0.337031 0.154069
threshold=-1.1015716387236265 0.50036071124633197 -0.84907315305241149 -0.99362811463323109 -0.84170416962049799 0.22001921710214378 -0.25492801020252442 1.9727095523643261 -0.6140574648805609
decision_type=2 2 2 2 2 2 2 2 2
left_child=-1 2 3 -2 -4 6 8 -3 -6
right_child=1 7 4 -5 5 -7 -8 -9 -10
leaf_value=0.036123216075494007 0.039008408855824246 -0.014905404317302301 -0.020448339097201826 -0.0064043691137894284 0.0086567153557552956 0.011296894817080882 -0.016088272816617975 -0.029672890137881044 -0.0017164964285782643
leaf_count=34 21 68 20 21 21 28 25 20 45
internal_value=0 -0.0487975 0.0162637 0.16302 -0.02808 0.00156764 -0.0327097 -0.182617 0.0158407
internal_count=303 269 181 42 139 119 91 88 66
shrinkage=0.1


Tree=20
num_leaves=10
num_cat=0
split_feature=12 7 9 10 12 0 7 11 6
split_gain=3.75538 1.96714 1.22295 0.777682 0.512665 0.477718 0.366575 0.365315 0.286519
threshold=-1.0245219848116476 0.23284192546291629 -0.032026687723698911 0.39193333435008565 1.0242983578477873 0.58045118391014638 1.0942562906888902 0.058387753949464549 0.41214966482068821
decision_type=2 2 2 2 2 2 2 2 2
left_child=1 -1 3 6 5 7 -2 -4 -5
right_child=2 -3 4 8 -6 -7 -8 -9 -10
leaf_value=0.048606943130670564 0.0097056575505929596 0.0058180702384561305 -0.022142914481461051 -0.002572610094928398 -0.022942438487495696 0.0049529033630824415 -0.0043493457585573195 -0.0064075189799445475 -0.018277296193298841
leaf_count=21 72 22 25 26 35 20 25 36 21
internal_value=0 0.26715 -0.0518772 0.00967796 -0.128291 -0.0845908 0.0608323 -0.128565 -0.095896
internal_count=303 43 260 144 116 81 97 61 47
shrinkage=0.1


Tree=21
num_leaves=10
num_cat=0
split_feature=12 4 10 12 8 4 4 4 10
split_gain=3.06648 1.63016 0.771171 0.726355 0.783489 0.519368 0.395652 0.759723 0.170385
threshold=-1.1905289664220018 0.98077539535121572 1.1880533900106889 -0.48027124763339785 -0.56594831523511635 1.4347072586158545 -0.67523529100311652 0.18639463463809641 -0.1830422614047951
decision_type=2 2 2 2 2 2 2 2 2
left_child=-1 2 3 4 8 -3 -5 -8 -2
right_child=1 5 -4 6 -6 -7 7 -9 -10
leaf_value=0.035359185722402556 0.0071086878622216845 -0.027250034087187344 -0.016121133945882323 -0.012006790434280712 0.021187837523009095 -0.0080851004629109349 0.0090260296495846253 -0.0093051286996342249 -0.0057881546998396517
leaf_count=22 21 31 25 31 35 26 52 40 20
internal_value=0 -0.0340911 0.0043305 0.0251272 0.101986 -0.185081 -0.0223628 0.0105596 0.00817545
internal_count=303 281 224 199 76 57 123 92 41
shrinkage=0.1


Tree=22
num_leaves=10
num_cat=0
split_feature=4 4 10 6 0 4 10 9 7
split_gain=1.82493 3.11588 1.02053 0.74776 0.507931 0.420688 0.408828 0.234336 0.211604
threshold=0.98077539535121572 0.58148347859065319 -0.1830422614047951 0.15190785778802818 -0.4081455374743882 1.4347072586158545 -0.78013230315024751 -0.4571320442231398 0.43837844062440284
decision_type=2 2 2 2 2 2 2 2 2
left_child=1 2 4 8 -1 -2 -6 -5 -4
right_child=5 -3 3 7 6 -7 -8 -9 -10
leaf_value=-0.0032463812493477707 -0.024525030462011214 0.039112545714967632 0.0058666408999273794 -0.021138136544161374 0.022709061848022082 -0.0072765905141400607 0.0060511849546695459 -0.0083951743665121262 -0.0044850936339935294
leaf_count=27 31 22 39 27 26 26 34 31 40
internal_value=0 0.0320087 -0.00326166 -0.05705 0.0814395 -0.166573 0.132696 -0.143272 0.00625256
internal_count=303 246 224 137 87 57 60 58 79
shrinkage=0.1


Tree=23
num_leaves=10
num_cat=0
split_feature=12 4 10 12 11 4 4 11 6
split_gain=2.31557 1.07333 0.509313 0.545134 0.608339 0.348026 0.604621 0.343217 0.238417
threshold=-1.1905289664220018 0.93454159446315055 1.1880533900106889 -0.48027124763339785 0.35485325849226779 0.21161307148613193 -0.67523529100311652 -0.044019280618581978 -0.56917881586496766
decision_type=2 2 2 2 2 2 2 2 2
left_child=-1 2 3 4 -2 6 -5 -3 -6
right_child=1 7 -4 5 8 -7 -8 -9 -10
leaf_value=0.030761439285495063 0.022682734561914747 -0.023081829792095554 -0.013110837265849114 -0.010515922998949406 0.0082558524653767087 -0.011924943660518952 0.0066831882078743857 -0.0079800581696498046 -0.0053742461305643831
leaf_count=22 22 27 25 31 33 28 60 34 21
internal_value=0 -0.029274 0.00326966 0.0204976 0.0866584 -0.0217564 0.0082415 -0.146644 0.0295526
internal_count=303 281 220 195 76 119 91 61 54
shrinkage=0.1


Tree=24
num_leaves=10
num_cat=0
split_feature=12 4 4 4 5 0 4 4 10
split_gain=1.87561 0.869394 0.494703 0.640309 0.436107 0.379689 0.29628 0.26037 0.222894
threshold=-1.1905289664220018 0.93454159446315055 0.51003124085455243 -0.25492801020252442 -0.23917056943559853 -0.4081455374743882 1.4347072586158545 -0.67523529100311652 -0.1830422614047951
decision_type=2 2 2 2 2 2 2 2 2
left_child=-1 2 3 4 7 -6 -3 -2 -7
right_child=1 6 -4 -5 5 8 -8 -9 -10
leaf_value=0.027685294655913656 -0.011196095233834866 -0.019204746455486334 0.014172366891137284 -0.009178408497245983 -0.0012976853146908745 0.019726920997103058 -0.0051120045165029861 0.0034593915058807895 0.0062350659370422369
leaf_count=22 27 35 23 68 31 24 26 22 25
internal_value=0 -0.0263466 0.00294269 -0.0132602 0.0281323 0.0736368 -0.13198 -0.0461608 0.128433
internal_count=303 281 220 197 129 80 61 49 49
shrinkage=0.1


Tree=25
num_leaves=10
num_cat=0
split_feature=12 9 2 12 11 6 0 6 10
split_gain=1.86306 1.03457 1.3787 0.516312 0.61026 0.626283 0.378024 0.344793 0.185919
threshold=-1.1905289664220018 -0.84907315305241149 -0.99362811463323109 -0.88863441336688509 -1.5959149340782655 1.0410673651496174 0.17388527353608221 -1.1854458727964754 -0.33784338333880121
decision_type=2 2 2 2 2 2 2 2 2
left_child=-1 2 -2 -3 -5 6 7 -6 -9
right_child=1 3 -4 4 5 -7 -8 8 -10
leaf_value=0.028360975382938271 0.029284080820666122 -0.018838430151343347 -0.0047298680355127619 -0.01980013160833291 0.010299362397442263 -0.015340925733847866 0.011927395679056645 0.0020443723414485392 -0.0065413773997376364
leaf_count=21 22 25 26 21 21 29 25 38 75
internal_value=0 -0.0251356 0.108599 -0.0525682 -0.0363223 -0.0182624 0.00638707 -0.0146739 -0.0365413
internal_count=303 282 48 234 209 188 159 134 113
shrinkage=0.1


Tree=26
num_leaves=10
num_cat=0
split_feature=7 9 5 11 10 12 6 0 7
split_gain=1.60572 1.04356 1.0263 0.630617 0.418709 0.375429 0.35147 0.379596 0.237269
threshold=-1.0579406608740702 -0.84907315305241149 0.91012608350633784 -0.044019280618581978 -1.2003067769711218 -0.90964795534287946 0.84407877510406182 -0.40121927553603215 -0.79431928480392433
decision_type=2 2 2 2 2 2 2 2 2
left_child=-1 2 -2 8 -5 -6 7 -7 -3
right_child=1 3 -4 4 5 6 -8 -9 -10
leaf_value=0.026340142930192607 -0.00039652852779802154 -0.022437308441537122 0.028151796758174898 0.0097592844101503338 -0.016866922414018996 -0.0075398639171711497 -0.011269814786775148 0.005221286585225561 -0.0085171791017055517
leaf_count=21 34 24 20 24 21 37 34 63 25
internal_value=0 -0.0232291 0.101769 -0.052834 -0.0253179 -0.0443492 -0.0248662 0.00499661 -0.153352
internal_count=303 282 54 228 179 155 134 100 49
shrinkage=0.1


Tree=27
num_leaves=10
num_cat=0
split_feature=12 9 2 12 6 6 5 5 10
split_gain=1.42299 0.71198 1.01225 0.384154 0.412911 0.25833 0.404506 0.242009 0.132676
threshold=-1.1905289664220018 -0.84907315305241149 -0.99362811463323109 -0.88863441336688509 1.0410673651496174 -1.1854458727964754 -0.78287896786305999 -0.595153561756392 -0.33784338333880121
decision_type=2 2 2 2 2 2 2 2 2
left_child=-1 2 -2 -3 5 -5 -7 -8 -9
right_child=1 3 -4 4 -6 6 7 8 -10
leaf_value=0.024810065296922059 0.024708379057913343 -0.016163723647594452 -0.0044368310741936933 0.0093164063324885707 -0.013131268466274968 -0.015404720134323552 0.0093808787813898006 0.0035053025449401348 -0.0043518769400508464
leaf_count=21 22 25 26 21 34 21 21 29 83
internal_value=0 -0.0217283 0.0892139 -0.0444857 -0.0304723 -0.0108805 -0.0250684 -0.00470328 -0.0231743
internal_count=303 282 48 234 209 175 154 133 112
shrinkage=0.1


Tree=28
num_leaves=10
num_cat=0
split_feature=7 11 10 9 12 6 0 6 2
split_gain=1.36571 0.763247 1.35668 0.519561 0.488987 0.282225 0.201757 0.202807 0.266475
threshold=-1.0579406608740702 -0.044019280618581978 -1.5541379128202788 -1.0962975447754906 -1.0126143110252508 -1.0715900822196864 -0.40704801545996544 0.84407877510406182 0.18144962740980647
decision_type=2 2 2 2 2 2 2 2 2
left_child=-1 -2 -3 -4 -5 -6 -7 8 -8
right_child=1 2 3 4 5 6 7 -9 -10
leaf_value=0.024329727342618363 -0.013310955467633903 0.024550292787275146 0.012824191306191052 -0.016216305421699804 0.0072576862920461036 -0.012377656174992974 -0.0025084477883170952 -0.0079612963115544746 0.01097070367075503
leaf_count=21 50 21 21 27 29 22 55 37 20
internal_value=0 -0.0210453 0.00310646 -0.0210183 -0.0375155 -0.0168683 -0.0362259 -0.0190284 0.0108599
internal_count=303 282 232 211 190 163 134 112 75
shrinkage=0.1


Tree=29
num_leaves=10
num_cat=0
split_feature=12 9 10 4 12 12 7 11 4
split_gain=1.12908 0.52772 0.663324 0.640107 0.316028 0.463737 0.268658 0.360309 0.259318
threshold=-1.1905289664220018 -0.64707273542501753 0.34770444236894121 -0.77190596558725255 -0.8318978500317008 -0.42913829549181187 -0.9084272428925394 0.38626189646872428 0.27465916360622078
decision_type=2 2 2 2 2 2 2 2 2
left_child=-1 2 3 -2 -3 -6 -7 8 -8
right_child=1 4 -4 -5 5 6 7 -9 -10
leaf_value=0.022124249923841231 0.00056556808283656011 -0.016749861743301155 -0.010165031197602335 0.020343755840634307 0.0097491619308762573 -0.012286554727082451 -0.012989538673233861 0.0051402238339210886 -0.00090137224444853412
leaf_count=21 36 20 23 30 23 42 36 37 35
internal_value=0 -0.0191102 0.044593 0.0955565 -0.0484863 -0.0347276 -0.0550012 -0.0286095 -0.0703058
internal_count=303 282 89 66 193 173 150 108 71
shrinkage=0.1


Tree=30
num_leaves=10
num_cat=0
split_feature=12 7 7 12 2 0 5 0 5
split_gain=1.46975 1.43832 1.10731 0.356039 0.40336 0.163967 0.171289 0.194822 0.252591
threshold=-1.0245219848116476 0.63754007713047123 -0.87982323346098001 -0.67919944500614282 -0.9281060101443116 -0.40902668914110213 -0.51797756146809448 -0.39427493251012397 0.13280384636835543
decision_type=2 2 2 2 2 2 2 2 2
left_child=1 -1 -2 4 -4 -5 -7 -8 -9
right_child=2 -3 3 5 -6 6 7 8 -10
leaf_value=0.035507880095392463 -0.017437634684611111 -0.0011597550595584124 0.016698232191530143 -0.011230291736622652 -0.0026775738046992395 -0.0065991031671208998 0.007352023587106184 0.0016610219301854041 -0.011756800198927523
leaf_count=20 50 23 22 21 21 49 30 47 20
internal_value=0 0.15895 -0.0406327 -0.00878892 0.0723563 -0.0296826 -0.0177989 0.00654564 -0.023443
internal_count=303 43 260 210 43 167 146 97 67
shrinkage=0.1


Tree=31
num_leaves=10
num_cat=0
split_feature=12 7 9 6 10 9 11 7 6
split_gain=1.21851 0.780626 0.566368 0.276419 0.245042 0.166942 0.151836 0.200113 0.227298
threshold=-1.1905289664220018 -0.87982323346098001 -1.0661482287117006 0.97239244384933166 -1.2003067769711218 -0.78877452092483125 0.22201016672299143 -0.22031952304601318 0.51696928154217658
decision_type=2 2 2 2 2 2 2 2 2
left_child=-1 3 -3 -2 -4 -6 -7 8 -8
right_child=1 2 4 -5 5 6 7 -9 -10
leaf_value=0.022746773818507791 -0.021804076584521683 0.015755183082073927 0.0066916362350356992 -0.0070544320701931909 -0.011168408968850324 -0.0069816216681566502 0.012008362644068573 -0.0035360023785935904 -0.0020504432669638294
leaf_count=20 24 20 29 27 23 45 23 69 23
internal_value=0 -0.0279366 -0.00331195 -0.139954 -0.0184878 -0.0320218 -0.0205703 -0.00130018 0.0497896
internal_count=303 283 232 51 212 183 160 115 46
shrinkage=0.1


Tree=32
num_leaves=10
num_cat=0
split_feature=12 7 7 12 2 6 2 5 7
split_gain=1.00674 1.11196 0.740798 0.272806 0.296603 0.139873 0.127672 0.130364 0.120436
threshold=-1.0245219848116476 0.63754007713047123 -0.87982323346098001 -0.67919944500614282 -0.9281060101443116 1.0519107737759781 -0.84458332749909582 -0.65772869712528126 -0.74211163544375436
decision_type=2 2 2 2 2 2 2 2 2
left_child=1 -1 5 4 -4 -2 -5 -8 -9
right_child=2 -3 3 6 -6 -7 7 8 -10
leaf_value=0.030421739201992749 -0.018598976569871108 -0.0018185945349219051 0.014480701609599321 -0.0081371923513484726 -0.0021343334533628962 -0.0078026481796405287 -0.0078709356748731807 0.0070754039605769028 -0.0013437680184600479
leaf_count=20 30 23 22 33 21 20 24 21 89
internal_value=0 0.131769 -0.0334119 -0.00736606 0.0636638 -0.142804 -0.0256552 -0.0119339 0.00263528
internal_count=303 43 260 210 43 50 167 134 110
shrinkage=0.1


Tree=33
num_leaves=10
num_cat=0
split_feature=12 9 2 7 9 12 6 0 4
split_gain=0.851344 0.579642 0.378836 0.313217 0.233606 0.328036 0.322358 0.236724 0.131102
threshold=-1.1905289664220018 1.0000000180025095e-35 -1.2161152606450563 -0.87982323346098001 -0.60787862454209041 -0.42913829549181187 0.22961895294361415 -0.39900976663714488 0.40915749346241032
decision_type=2 2 2 2 2 2 2 2 2
left_child=-1 2 -2 -3 6 -6 7 -4 -5
right_child=1 3 4 8 5 -7 -8 -9 -10
leaf_value=0.019041939089074731 0.012870991643032301 -0.016448242800748525 -0.0047627906674857848 -0.010018818421061344 0.012595506317913533 -0.0012196107907220723 -0.014252300575996439 0.0083582954798202998 -0.00036555320051882199
leaf_count=20 23 34 44 24 25 55 24 20 34
internal_value=0 -0.0230647 0.00834501 -0.088274 -0.00813351 0.0309761 -0.0436877 -0.00662451 -0.0436001
internal_count=303 283 191 92 168 80 88 64 58
shrinkage=0.1


Tree=34
num_leaves=10
num_cat=0
split_feature=12 9 5 5 12 12 0 0 11
split_gain=0.689588 0.46951 0.576473 0.513021 0.284241 0.248421 0.191671 0.432735 0.228043
threshold=-1.1905289664220018 1.0000000180025095e-35 0.13280384636835543 -0.3434624617170805 0.12351785847683557 0.90872387697981927 -0.40842579433144838 -0.40222759751853038 0.37155876357264195
decision_type=2 2 2 2 2 2 2 2 2
left_child=-1 3 5 4 -2 -3 -5 -8 -9
right_child=1 2 -4 6 -6 -7 7 8 -10
leaf_value=0.017137745846994221 -0.013318535083934905 0.00025167463974533035 -0.022963859075680378 -0.0021056919154943897 -0.00025536424428638485 -0.012346239185527616 0.017520590733598778 0.0079429079459181866 -0.0039385685945550605
leaf_count=20 31 49 20 32 36 23 27 35 30
internal_value=0 -0.0207582 -0.0794466 0.00751051 -0.0629952 -0.0377266 0.0456063 0.0687936 0.0245915
internal_count=303 283 92 191 67 72 124 92 65
shrinkage=0.1


Tree=35
num_leaves=10
num_cat=0
split_feature=0 6 12 7 7 0 12 5 6
split_gain=0.308337 0.352702 0.751495 0.401264 0.242593 0.200776 0.257576 0.441567 0.116209
threshold=1.2244368414184679 0.73022298452727308 -0.043189574532718385 -0.68862427066576815 -0.75564344106547787 -0.40842579433144838 -1.0427337211908425 0.40813444199146892 -1.0715900822196864
decision_type=2 2 2 2 2 2 2 2 2
left_child=1 3 -3 -1 -4 8 -7 -8 -5
right_child=-2 2 4 5 -6 6 7 -9 -10
leaf_value=-0.015482863492215984 -0.012509344299323858 0.020242383278906345 0.0048292070985413516 -0.0017327657515124884 -0.0076410855721825589 -0.007996246320280162 0.00054988849291263465 0.017227123333141209 -0.011174055580473082
leaf_count=20 20 25 39 32 26 22 77 20 22
internal_value=0 0.00338381 0.0550812 -0.0207238 -0.0015891 -0.0052203 0.0177283 0.0398849 -0.0557922
internal_count=303 283 90 193 65 173 119 97 54
shrinkage=0.1


Tree=36
num_leaves=10
num_cat=0
split_feature=12 11 12 11 4 12 4 5 0
split_gain=0.278575 0.283293 0.331531 0.301427 0.266151 0.158959 0.187044 0.144207 0.121776
threshold=-1.1015716387236265 0.21474441622570553 -0.054396796919915308 0.32699167981369864 0.67815415317478933 0.14523185185202964 -0.58697076203499221 -0.67719651701782435 -0.3974963796090199
decision_type=2 2 2 2 2 2 2 2 2
left_child=-1 2 -2 -3 5 6 -5 -4 -8
right_child=1 3 7 4 -6 -7 8 -9 -10
leaf_value=0.0079317148701686952 -0.016691600612324217 0.010329734706492337 0.0041195839787611646 0.0029694780125282707 -0.0090967256152494399 0.0069544997729473956 -0.010691885349418347 -0.0063624129683843679 -0.00012647376395761968
leaf_count=35 23 27 21 52 33 33 24 35 20
internal_value=0 -0.0155445 -0.0658329 0.00547553 -0.0108281 0.00967261 -0.0109085 -0.0243166 -0.0588943
internal_count=303 268 79 189 162 129 96 56 44
shrinkage=0.1


Tree=37
num_leaves=10
num_cat=0
split_feature=0 6 11 7 11 0 6 7 11
split_gain=0.227797 0.295988 0.358965 0.343069 0.298275 0.24695 0.23821 0.32964 0.146962
threshold=1.2244368414184679 0.79889790582755837 0.14740750019967722 -0.65324250920651528 0.2729276308378305 0.022737024845804515 -0.043273497486467166 0.18866804511459248 0.38969453449893859
decision_type=2 2 2 2 2 2 2 2 2
left_child=1 2 -1 5 -4 -3 7 -6 -9
right_child=-2 3 4 -5 6 -7 -8 8 -10
leaf_value=-0.011474406544584781 -0.010726907620264684 0.0040472545580436973 0.011229846318296734 -0.006074280431494117 0.010300224809907377 0.016939745935572622 -0.0079835631651803858 -0.0083141714334487912 0.00080979200052645284
leaf_count=32 20 39 21 20 28 24 41 27 51
internal_value=0 0.00316092 -0.0176729 0.0533628 0.000816889 0.0895868 -0.015109 0.0099267 -0.023485
internal_count=303 283 200 83 168 63 147 106 78
shrinkage=0.1


Tree=38
num_leaves=10
num_cat=0
split_feature=12 0 0 5 5 0 4 11 11
split_gain=0.215834 0.238447 0.460536 0.457735 0.172473 0.245897 0.162551 0.1605 0.106747
threshold=-1.1015716387236265 -0.33939521557147584 -0.38342507457292546 0.13280384636835543 0.14879526985151584 -0.40748256426413831 1.1615075260954695 -0.29202737830153341 0.39438580647356414
decision_type=2 2 2 2 2 2 2 2 2
left_child=-1 2 4 6 8 -6 7 -3 -2
right_child=1 3 -4 -5 5 -7 -8 -9 -10
leaf_value=0.0070138259092345839 -0.0078589197881042197 0.0015623492485081609 0.013329148044935069 -0.018177540697866961 -0.0039216994773596525 0.010115147872756308 0.0036726114853723522 -0.0093994155526161208 -0.00059344563369883143
leaf_count=35 39 22 26 21 24 26 34 34 42
internal_value=0 -0.0133604 0.0117203 -0.048835 -0.0124084 0.0337746 -0.0178155 -0.0509301 -0.0409164
internal_count=303 268 157 111 131 50 90 56 81
shrinkage=0.1


Tree=39
num_leaves=10
num_cat=0
split_feature=7 10 5 5 6 11 11 11 2
split_gain=0.183811 0.333865 0.390634 0.326476 0.181753 0.144135 0.128785 0.0957597 0.0608111
threshold=1.0654152969206983 -0.62533118121624154 -0.21414051528804304 0.96852954318396767 1.0085371392705347 0.39438580647356414 0.42854055487419185 0.39438580647356414 -0.11807999311096787
decision_type=2 2 2 2 2 2 2 2 2
left_child=1 2 -1 4 6 -2 7 8 -3
right_child=5 3 -4 -5 -6 -7 -8 -9 -10
leaf_value=-0.0017892211335711183 -0.00988327892846428 -0.0048303343898927174 0.014893907761143056 -0.013239401094615461 0.0066872214575830315 3.766895237344283e-05 -0.0067212358527981193 0.0059104952267565146 0.0010084218747744506
leaf_count=25 32 30 32 20 35 27 34 24 44
internal_value=0 0.00876761 0.0757675 -0.0116548 0.00280498 -0.0534318 -0.0141825 0.00421555 -0.0135864
internal_count=303 244 57 187 167 59 132 98 74
shrinkage=0.1



feature importances:
Column_12=77
Column_5=56
Column_4=39
Column_7=39
Column_0=38
Column_6=28
Column_10=26
Column_11=26
Column_9=18
Column_2=11
Column_8=2

pandas_categorical:null
